encog,BasicNetwork,java,3.3.0,1,1461826684066
[BASIC]
[BASIC:PARAMS]
[BASIC:NETWORK]
beginTraining=0
connectionLimit=0
contextTargetOffset=0,19,0
contextTargetSize=0,10,0
endTraining=2
hasContext=t
inputCount=4
layerCounts=3,11,15
layerFeedCounts=3,10,4
layerContextCount=0,0,10
layerIndex=0,3,14
output=-0.2707850854,0.3767069591,-0.0938424283,0.4828784114,0.0945741061,0.8095969221,0.1458274676,0.9999999982,0.7893545992,0.0005338568,0.0030593071,0.2839663835,0,1,-0.1111111111,-0.1666666667,0.3898305085,0.4166666667,1,-0.2707850854,0.3767069591,-0.0938424283,0.4828784114,0.0945741061,0.8095969221,0.1458274676,0.9999999982,0.7893545992,0.0005338568
outputCount=3
weightIndex=0,33,183
weights=0.3245538962,0.4184021559,-0.0458216096,-0.0567222502,-0.7913965461,-0.4355811137,0.49446518,0.2976601136,0.303725009,0.0824805907,0.6260957316,-0.9787218775,-0.9532882434,-0.4168922778,0.1905799875,0.4164210098,0.1151710501,0.5605520093,0.8773305255,0.2085383049,0.1913920442,0.6796569625,0.3524884676,-0.5471475127,-0.6856232749,0.1929918632,0.0640718804,-0.8581789614,-0.0711471278,0.0735641782,0.8419972938,0.2157273671,0.6886790961,0.2766104318,-0.2203675473,0.5858155356,-0.5764697296,0.38090896,-0.1531836936,0.0024757079,-0.9956880454,0.614575667,-0.1294823479,-0.8121136639,-0.7468427868,-0.4814020399,0.830125071,-0.2003757348,0.0586285746,1.1865887245,-0.439963336,-0.1544995928,-0.1841920903,0.5924748762,-0.466075559,-0.2541507314,-0.4782211772,0.6347086207,-0.6972573585,-0.9716461166,0.085547898,-0.6397823496,0.4054733205,0.0113548738,0.0245259473,0.4920327284,-0.9216019461,0.7210737472,0.3783186526,-0.5967384902,-0.5539539525,0.4509994438,-0.5174811115,0.4644816578,-0.3766901405,0.6474529499,0.4389190215,6.9280871509,-0.2437272694,-0.1501141256,-0.9759557781,-0.0995186277,-0.3376898771,-0.4841505238,-2.0143600164,0.8657186469,0.0517186302,0.1724867576,0.1723496726,-0.4000204557,-0.8690562514,0.679158555,-1.6530112303,0.0194686648,-49.1155005267,20.0764233672,6.2381612455,-0.3788045179,-1.1021206119,0.4924964256,0.850109922,0.3861953338,0.0409311219,-0.3049209152,-0.003393614,0.8810920177,0.5829152606,0.2228921784,0.2878003176,-0.0139521635,-0.9273937951,0.6235275676,-0.4641316868,0.9614679622,0.2684447973,-0.8109414973,0.9804341867,-0.0089063666,0.9832211629,0.9744698882,0.0727763557,0.9284823388,0.7661132225,-0.777255023,0.7295340697,-0.3241698625,0.8687219955,-1.1683889553,0.0368687405,-3.0929700568,-0.7088998557,-1.8668233914,-0.6281042175,-0.6627488335,-1.9994447639,-1.553708669,-1.9066355413,-25.4203539718,-0.7674170977,-0.3664511313,-0.7190579862,0.0948856475,-0.1598662267,0.4545381208,-1.5423323102,0.7895825152,-0.6579968498,-0.8272119342,-1.856637784,-1.0534437361,-1.9838651416,-1.0217001878,-8.1169207486,7.674298659,0.2618827709,0.6639422247,0.8270034415,-0.7318535217,-2.6209373303,-0.6737324595,0.1791778836,-0.4526326813,0.0458998459,-0.4288591514,0.5808407249,0.7015867999,-0.4214479715,-7.2758148322,-0.554068392,0.2973410324,0.5865739783,-0.6671234706,-56.2467441444,-0.8214858274,-1.3393281903,0.8584755223,-55.7828942365,-55.652730416,-55.2742595755,-56.7749043525,-55.5886601686,-56.4420346137,-56.6661143934
biasActivation=0,1,1
[BASIC:ACTIVATION]
"org.encog.engine.network.activation.ActivationLinear"
"org.encog.engine.network.activation.ActivationSigmoid"
"org.encog.engine.network.activation.ActivationSigmoid"
